svm_type c_svc
kernel_type rbf
gamma 2
nr_class 2
total_sv 5
rho -0.51597
label 1 -1
nr_sv 3 2
SV
0.4840932190774313 1:-1 2:-1 3:-1 4:1 5:1 6:1 
0.5070114487668436 1:0.997797 2:1 3:1 4:-1 5:-1 6:-0.866467 
0.6163011375209906 1:0.431718 2:0.263158 3:-0.517241 4:-0.429806 5:-0.427386 6:-0.44036 
-0.8584118532726157 1:0.988987 2:0.473684 3:-0.296552 4:-0.980562 5:-0.93361 6:-0.977494 
-0.7489939520926496 1:1 2:0.368421 3:-0.393103 4:-0.989201 5:-0.946058 6:-1 
