svm_type c_svc
kernel_type rbf
gamma 8
nr_class 2
total_sv 1110
rho -2.92489
label 1 -1
nr_sv 520 590
SV
2048 1:0.875 2:-0.806034 3:-0.832447 
2048 1:0.875 2:-0.806034 3:-0.832447 
2048 1:0.75 2:-0.767241 3:-0.760638 
2048 1:0.875 2:-0.844828 3:-0.856383 
2048 1:1 2:-0.922414 3:-0.952128 
2048 1:0.6875 2:-0.650862 3:-0.664894 
2048 1:0.9375 2:-0.883621 3:-0.904255 
2048 1:0.6875 2:-0.767241 3:-0.736702 
2048 1:0.875 2:-0.844828 3:-0.856383 
2048 1:0.875 2:-0.844828 3:-0.856383 
2048 1:0.9375 2:-0.844828 3:-0.880319 
2048 1:0.875 2:-0.883621 3:-0.880319 
2048 1:0.875 2:-0.844828 3:-0.856383 
2048 1:0.9375 2:-0.922414 3:-0.928191 
2048 1:0.875 2:-0.883621 3:-0.880319 
2048 1:0.8125 2:-0.728448 3:-0.760638 
2048 1:0.875 2:-0.844828 3:-0.856383 
2048 1:1 2:-0.922414 3:-0.952128 
2048 1:0.75 2:-0.806034 3:-0.784574 
2048 1:0.75 2:-0.728448 3:-0.736702 
2048 1:1 2:-0.922414 3:-0.952128 
2048 1:0.6875 2:-0.767241 3:-0.736702 
2048 1:0.75 2:-0.806034 3:-0.784574 
2048 1:0.75 2:-0.728448 3:-0.736702 
2048 1:0.875 2:-0.806034 3:-0.832447 
2048 1:0.9375 2:-0.883621 3:-0.904255 
2048 1:0.625 2:-0.728448 3:-0.68883 
2048 1:0.9375 2:-0.922414 3:-0.928191 
2048 1:1 2:-0.922414 3:-0.952128 
2048 1:0.8125 2:-0.806034 3:-0.808511 
2048 1:0.8125 2:-0.806034 3:-0.808511 
2048 1:0.6875 2:-0.767241 3:-0.736702 
2048 1:0.375 2:-0.573276 3:-0.49734 
2048 1:0.875 2:-0.844828 3:-0.856383 
2048 1:0.875 2:-0.844828 3:-0.856383 
2048 1:0.8125 2:-0.844828 3:-0.832447 
2048 1:1 2:-0.922414 3:-0.952128 
2048 1:0.8125 2:-0.806034 3:-0.808511 
2048 1:0.9375 2:-0.767241 3:-0.832447 
2048 1:0.875 2:-0.883621 3:-0.880319 
2048 1:0.9375 2:-0.883621 3:-0.904255 
2048 1:1 2:-0.922414 3:-0.952128 
2048 1:0.875 2:-0.844828 3:-0.856383 
2048 1:0.875 2:-0.767241 3:-0.808511 
2048 1:0.8125 2:-0.806034 3:-0.808511 
2048 1:1 2:-0.922414 3:-0.952128 
2048 1:1 2:-0.883621 3:-0.928191 
2048 1:1 2:-0.844828 3:-0.904255 
2048 1:0.9375 2:-0.844828 3:-0.880319 
2048 1:1 2:-0.844828 3:-0.904255 
2048 1:1 2:-0.883621 3:-0.928191 
2048 1:0.625 2:-0.650862 3:-0.640957 
2048 1:0.875 2:-0.844828 3:-0.856383 
2048 1:0.875 2:-0.844828 3:-0.856383 
2048 1:0.9375 2:-0.883621 3:-0.904255 
2048 1:0.875 2:-0.844828 3:-0.856383 
2048 1:0.9375 2:-0.844828 3:-0.880319 
2048 1:0.8125 2:-0.806034 3:-0.808511 
2048 1:0.8125 2:-0.844828 3:-0.832447 
2048 1:0.625 2:-0.689655 3:-0.664894 
2048 1:0.875 2:-0.844828 3:-0.856383 
2048 1:0.6875 2:-0.767241 3:-0.736702 
2048 1:0.875 2:-0.844828 3:-0.856383 
2048 1:0.9375 2:-0.689655 3:-0.784574 
2048 1:0.875 2:-0.767241 3:-0.808511 
2048 1:0.8125 2:-0.767241 3:-0.784574 
2048 1:1 2:-0.961207 3:-0.976064 
2048 1:0.9375 2:-0.922414 3:-0.928191 
2048 1:0.8125 2:-0.806034 3:-0.808511 
2048 1:0.875 2:-0.883621 3:-0.880319 
2048 1:0.875 2:-0.883621 3:-0.880319 
2048 1:0.9375 2:-0.844828 3:-0.880319 
2048 1:1 2:-0.961207 3:-0.976064 
2048 1:0.9375 2:-0.883621 3:-0.904255 
2048 1:0.9375 2:-0.883621 3:-0.904255 
2048 1:1 2:-0.922414 3:-0.952128 
2048 1:0.875 2:-0.844828 3:-0.856383 
2048 1:0.875 2:-0.883621 3:-0.880319 
2048 1:1 2:-0.767241 3:-0.856383 
2048 1:1 2:-0.844828 3:-0.904255 
2048 1:1 2:-0.844828 3:-0.904255 
2048 1:0.875 2:-0.728448 3:-0.784574 
2048 1:0.875 2:-0.806034 3:-0.832447 
2048 1:0.9375 2:-0.806034 3:-0.856383 
2048 1:0.875 2:-0.806034 3:-0.832447 
2048 1:0.6875 2:-0.689655 3:-0.68883 
2048 1:0.9375 2:-0.883621 3:-0.904255 
2048 1:0.875 2:-0.844828 3:-0.856383 
2048 1:0.9375 2:-0.883621 3:-0.904255 
2048 1:0.875 2:-0.844828 3:-0.856383 
2048 1:0.8125 2:-0.728448 3:-0.760638 
2048 1:0.8125 2:-0.767241 3:-0.784574 
2048 1:0.9375 2:-0.728448 3:-0.808511 
2048 1:0.875 2:-0.883621 3:-0.880319 
2048 1:0.9375 2:-0.922414 3:-0.928191 
2048 1:0.875 2:-0.844828 3:-0.856383 
2048 1:0.875 2:-0.806034 3:-0.832447 
2048 1:1 2:-0.922414 3:-0.952128 
2048 1:0.875 2:-0.883621 3:-0.880319 
2048 1:0.75 2:-0.806034 3:-0.784574 
2048 1:0.9375 2:-0.806034 3:-0.856383 
2048 1:0.9375 2:-0.922414 3:-0.928191 
2048 1:0.875 2:-0.844828 3:-0.856383 
2048 1:0.875 2:-0.806034 3:-0.832447 
2048 1:0.8125 2:-0.806034 3:-0.808511 
2048 1:0.875 2:-0.806034 3:-0.832447 
2048 1:1 2:-0.922414 3:-0.952128 
2048 1:0.9375 2:-0.806034 3:-0.856383 
2048 1:0.8125 2:-0.728448 3:-0.760638 
2048 1:0.875 2:-0.806034 3:-0.832447 
2048 1:0.875 2:-0.806034 3:-0.832447 
2048 1:0.75 2:-0.767241 3:-0.760638 
2048 1:0.625 2:-0.612069 3:-0.617021 
2048 1:0.8125 2:-0.806034 3:-0.808511 
2048 1:0.4375 2:-0.49569 3:-0.473404 
2048 1:0.875 2:-0.806034 3:-0.832447 
2048 1:0.9375 2:-0.922414 3:-0.928191 
2048 1:0.8125 2:-0.806034 3:-0.808511 
2048 1:0.625 2:-0.650862 3:-0.640957 
2048 1:0.75 2:-0.767241 3:-0.760638 
2048 1:0.875 2:-0.844828 3:-0.856383 
2048 1:1 2:-0.883621 3:-0.928191 
2048 1:0.8125 2:-0.806034 3:-0.808511 
2048 1:0.9375 2:-0.883621 3:-0.904255 
2048 1:0.875 2:-0.767241 3:-0.808511 
2048 1:0.625 2:-0.728448 3:-0.68883 
2048 1:0.8125 2:-0.767241 3:-0.784574 
2048 1:0.875 2:-0.767241 3:-0.808511 
2048 1:0.9375 2:-0.806034 3:-0.856383 
2048 1:0.6875 2:-0.612069 3:-0.640957 
2048 1:0.875 2:-0.883621 3:-0.880319 
2048 1:1 2:-0.961207 3:-0.976064 
2048 1:0.875 2:-0.883621 3:-0.880319 
2048 1:0.8125 2:-0.767241 3:-0.784574 
2048 1:0.4375 2:-0.612069 3:-0.545213 
2048 1:0.875 2:-0.883621 3:-0.880319 
2048 1:1 2:-0.961207 3:-0.976064 
2048 1:0.9375 2:-0.883621 3:-0.904255 
2048 1:0.5 2:-0.650862 3:-0.593085 
2048 1:0.375 2:-0.573276 3:-0.49734 
2048 1:0.75 2:-0.806034 3:-0.784574 
2048 1:0.875 2:-0.844828 3:-0.856383 
2048 1:1 2:-0.922414 3:-0.952128 
2048 1:0.875 2:-0.767241 3:-0.808511 
2048 1:0.9375 2:-0.844828 3:-0.880319 
2048 1:1 2:-0.883621 3:-0.928191 
2048 1:0.875 2:-0.844828 3:-0.856383 
2048 1:0.875 2:-0.806034 3:-0.832447 
2048 1:0.8125 2:-0.844828 3:-0.832447 
2048 1:0.9375 2:-0.844828 3:-0.880319 
2048 1:0.9375 2:-0.844828 3:-0.880319 
2048 1:0.9375 2:-0.844828 3:-0.880319 
2048 1:1 2:-0.883621 3:-0.928191 
2048 1:0.9375 2:-0.922414 3:-0.928191 
2048 1:0.8125 2:-0.844828 3:-0.832447 
2048 1:0.875 2:-0.806034 3:-0.832447 
2048 1:0.8125 2:-0.844828 3:-0.832447 
2048 1:0.5625 2:-0.689655 3:-0.640957 
2048 1:0.875 2:-0.844828 3:-0.856383 
2048 1:1 2:-0.922414 3:-0.952128 
2048 1:1 2:-0.961207 3:-0.976064 
2048 1:1 2:-0.922414 3:-0.952128 
2048 1:0.875 2:-0.806034 3:-0.832447 
2048 1:0.5 2:-0.49569 3:-0.49734 
2048 1:0.9375 2:-0.844828 3:-0.880319 
2048 1:0.625 2:-0.650862 3:-0.640957 
2048 1:0.75 2:-0.728448 3:-0.736702 
2048 1:0.75 2:-0.728448 3:-0.736702 
2048 1:0.875 2:-0.883621 3:-0.880319 
2048 1:1 2:-0.922414 3:-0.952128 
2048 1:1 2:-0.844828 3:-0.904255 
2048 1:0.75 2:-0.728448 3:-0.736702 
2048 1:0.875 2:-0.844828 3:-0.856383 
2048 1:1 2:-0.844828 3:-0.904255 
2048 1:0.8125 2:-0.806034 3:-0.808511 
2048 1:0.9375 2:-0.922414 3:-0.928191 
2048 1:0.9375 2:-0.922414 3:-0.928191 
2048 1:0.9375 2:-0.883621 3:-0.904255 
2048 1:1 2:-0.883621 3:-0.928191 
2048 1:1 2:-0.883621 3:-0.928191 
2048 1:0.75 2:-0.689655 3:-0.712766 
2048 1:0.8125 2:-0.767241 3:-0.784574 
2048 1:0.8125 2:-0.806034 3:-0.808511 
2048 1:0.9375 2:-0.844828 3:-0.880319 
2048 1:0.875 2:-0.844828 3:-0.856383 
2048 1:0.9375 2:-0.883621 3:-0.904255 
2048 1:0.9375 2:-0.922414 3:-0.928191 
2048 1:0.9375 2:-0.922414 3:-0.928191 
2048 1:1 2:-0.767241 3:-0.856383 
2048 1:0.9375 2:-0.844828 3:-0.880319 
2048 1:0.9375 2:-0.844828 3:-0.880319 
2048 1:0.75 2:-0.806034 3:-0.784574 
2048 1:0.8125 2:-0.728448 3:-0.760638 
2048 1:0.8125 2:-0.806034 3:-0.808511 
2048 1:0.875 2:-0.806034 3:-0.832447 
2048 1:1 2:-0.844828 3:-0.904255 
2048 1:0.875 2:-0.767241 3:-0.808511 
2048 1:1 2:-0.883621 3:-0.928191 
2048 1:0.8125 2:-0.806034 3:-0.808511 
2048 1:0.6875 2:-0.650862 3:-0.664894 
2048 1:0.9375 2:-0.844828 3:-0.880319 
2048 1:0.9375 2:-0.844828 3:-0.880319 
2048 1:0.6875 2:-0.689655 3:-0.68883 
2048 1:0.9375 2:-0.844828 3:-0.880319 
2048 1:0.875 2:-0.806034 3:-0.832447 
2048 1:0.9375 2:-0.844828 3:-0.880319 
2048 1:0.6875 2:-0.689655 3:-0.68883 
2048 1:0.9375 2:-0.883621 3:-0.904255 
2048 1:0.9375 2:-0.922414 3:-0.928191 
2048 1:0.9375 2:-0.883621 3:-0.904255 
2048 1:0.75 2:-0.806034 3:-0.784574 
2048 1:0.625 2:-0.728448 3:-0.68883 
2048 1:0.375 2:-0.534483 3:-0.473404 
2048 1:0.875 2:-0.844828 3:-0.856383 
2048 1:0.8125 2:-0.806034 3:-0.808511 
2048 1:0.6875 2:-0.767241 3:-0.736702 
2048 1:1 2:-0.922414 3:-0.952128 
2048 1:0.875 2:-0.806034 3:-0.832447 
2048 1:0.875 2:-0.806034 3:-0.832447 
2048 1:0.875 2:-0.844828 3:-0.856383 
2048 1:0.9375 2:-0.922414 3:-0.928191 
2048 1:1 2:-0.922414 3:-0.952128 
2048 1:1 2:-0.961207 3:-0.976064 
2048 1:0.9375 2:-0.883621 3:-0.904255 
2048 1:0.9375 2:-0.806034 3:-0.856383 
2048 1:1 2:-0.961207 3:-0.976064 
2048 1:1 2:-0.922414 3:-0.952128 
2048 1:0.8125 2:-0.767241 3:-0.784574 
2048 1:0.9375 2:-0.806034 3:-0.856383 
2048 1:1 2:-0.961207 3:-0.976064 
2048 1:0.8125 2:-0.844828 3:-0.832447 
2048 1:0.6875 2:-0.650862 3:-0.664894 
2048 1:0.878788 2:-0.887147 3:-0.883946 
2048 1:0.69697 2:-0.811912 3:-0.767892 
2048 1:1 2:-1 3:-1 
2048 1:0.939394 2:-0.924765 3:-0.930368 
2048 1:0.939394 2:-0.962382 3:-0.953578 
2048 1:0.818182 2:-0.887147 3:-0.860735 
2048 1:0.757576 2:-0.811912 3:-0.791103 
2048 1:0.636364 2:-0.774295 3:-0.72147 
2048 1:0.939394 2:-0.887147 3:-0.907157 
2048 1:0.818182 2:-0.887147 3:-0.860735 
2048 1:0.818182 2:-0.84953 3:-0.837524 
2048 1:0.69697 2:-0.661442 3:-0.675049 
2048 1:0.939394 2:-0.924765 3:-0.930368 
2048 1:0.636364 2:-0.69906 3:-0.675049 
2048 1:0.878788 2:-0.924765 3:-0.907157 
2048 1:0.878788 2:-0.887147 3:-0.883946 
2048 1:0.878788 2:-0.84953 3:-0.860735 
2048 1:0.939394 2:-0.84953 3:-0.883946 
2048 1:0.69697 2:-0.811912 3:-0.767892 
2048 1:0.818182 2:-0.774295 3:-0.791103 
2048 1:0.757576 2:-0.774295 3:-0.767892 
2048 1:0.939394 2:-0.887147 3:-0.907157 
2048 1:0.878788 2:-0.811912 3:-0.837524 
2048 1:0.939394 2:-0.962382 3:-0.953578 
2048 1:0.939394 2:-0.924765 3:-0.930368 
2048 1:0.636364 2:-0.774295 3:-0.72147 
2048 1:0.878788 2:-0.887147 3:-0.883946 
2048 1:0.818182 2:-0.84953 3:-0.837524 
2048 1:0.818182 2:-0.811912 3:-0.814314 
2048 1:0.757576 2:-0.774295 3:-0.767892 
2048 1:0.818182 2:-0.887147 3:-0.860735 
2048 1:1 2:-0.924765 3:-0.953578 
2048 1:1 2:-0.887147 3:-0.930368 
2048 1:0.939394 2:-0.962382 3:-0.953578 
2048 1:0.939394 2:-0.924765 3:-0.930368 
2048 1:0.878788 2:-0.924765 3:-0.907157 
2048 1:0.818182 2:-0.887147 3:-0.860735 
2048 1:0.454546 2:-0.623825 3:-0.558994 
2048 1:0.757576 2:-0.84953 3:-0.814314 
2048 1:0.818182 2:-0.887147 3:-0.860735 
2048 1:0.878788 2:-0.811912 3:-0.837524 
2048 1:0.818182 2:-0.811912 3:-0.814314 
2048 1:0.939394 2:-0.924765 3:-0.930368 
2048 1:0.818182 2:-0.811912 3:-0.814314 
2048 1:1 2:-0.924765 3:-0.953578 
2048 1:1 2:-0.887147 3:-0.930368 
2048 1:1 2:-0.962382 3:-0.976789 
2048 1:0.878788 2:-0.84953 3:-0.860735 
2048 1:0.878788 2:-0.84953 3:-0.860735 
2048 1:0.878788 2:-0.924765 3:-0.907157 
2048 1:0.878788 2:-0.84953 3:-0.860735 
2048 1:0.818182 2:-0.84953 3:-0.837524 
2048 1:0.939394 2:-0.924765 3:-0.930368 
2048 1:0.878788 2:-0.84953 3:-0.860735 
2048 1:0.939394 2:-0.811912 3:-0.860735 
2048 1:0.939394 2:-0.84953 3:-0.883946 
2048 1:0.878788 2:-0.811912 3:-0.837524 
2048 1:0.939394 2:-0.811912 3:-0.860735 
2048 1:1 2:-0.962382 3:-0.976789 
2048 1:0.878788 2:-0.924765 3:-0.907157 
2048 1:0.818182 2:-0.736677 3:-0.767892 
2048 1:0.818182 2:-0.774295 3:-0.791103 
2048 1:0.757576 2:-0.661442 3:-0.698259 
2048 1:0.939394 2:-0.811912 3:-0.860735 
2048 1:0.939394 2:-0.924765 3:-0.930368 
2048 1:0.575758 2:-0.661442 3:-0.628627 
2048 1:0.878788 2:-0.84953 3:-0.860735 
2048 1:0.878788 2:-0.887147 3:-0.883946 
2048 1:0.939394 2:-0.774295 3:-0.837524 
2048 1:0.939394 2:-0.811912 3:-0.860735 
2048 1:0.757576 2:-0.774295 3:-0.767892 
2048 1:0.878788 2:-0.84953 3:-0.860735 
2048 1:0.818182 2:-0.811912 3:-0.814314 
2048 1:0.39394 2:-0.54859 3:-0.489361 
2048 1:0.757576 2:-0.661442 3:-0.698259 
2048 1:1 2:-1 3:-1 
2048 1:0.818182 2:-0.736677 3:-0.767892 
2048 1:0.939394 2:-0.84953 3:-0.883946 
2048 1:0.818182 2:-0.69906 3:-0.744681 
2048 1:1 2:-0.962382 3:-0.976789 
2048 1:0.818182 2:-0.69906 3:-0.744681 
2048 1:0.878788 2:-0.811912 3:-0.837524 
2048 1:0.757576 2:-0.736677 3:-0.744681 
2048 1:0.878788 2:-0.84953 3:-0.860735 
2048 1:1 2:-0.962382 3:-0.976789 
2048 1:0.878788 2:-0.887147 3:-0.883946 
2048 1:0.575758 2:-0.586207 3:-0.582205 
2048 1:0.212122 2:-0.473355 3:-0.373307 
2048 1:0.878788 2:-0.84953 3:-0.860735 
2048 1:0.636364 2:-0.774295 3:-0.72147 
2048 1:0.939394 2:-0.887147 3:-0.907157 
2048 1:0.818182 2:-0.84953 3:-0.837524 
2048 1:0.818182 2:-0.84953 3:-0.837524 
2048 1:0.878788 2:-0.887147 3:-0.883946 
2048 1:0.939394 2:-0.924765 3:-0.930368 
2048 1:0.939394 2:-0.811912 3:-0.860735 
2048 1:0.878788 2:-0.811912 3:-0.837524 
2048 1:1 2:-0.962382 3:-0.976789 
2048 1:0.764706 2:-0.853955 3:-0.819775 
2048 1:1 2:-0.963489 3:-0.977472 
2048 1:0.941176 2:-0.926977 3:-0.932416 
2048 1:0.882352 2:-0.926977 3:-0.909887 
2048 1:0.764706 2:-0.853955 3:-0.819775 
2048 1:1 2:-0.890467 3:-0.932416 
2048 1:0.882352 2:-0.926977 3:-0.909887 
2048 1:0.411764 2:-0.561866 3:-0.50438 
2048 1:0.705882 2:-0.780933 3:-0.752191 
2048 1:0.705882 2:-0.780933 3:-0.752191 
2048 1:0.882352 2:-0.926977 3:-0.909887 
2048 1:1 2:-0.963489 3:-0.977472 
2048 1:0.882352 2:-0.890467 3:-0.887359 
2048 1:0.705882 2:-0.780933 3:-0.752191 
2048 1:0.235294 2:-0.488843 3:-0.391739 
2048 1:1 2:-0.853955 3:-0.909887 
2048 1:0.588236 2:-0.671399 3:-0.63955 
2048 1:1 2:-0.963489 3:-0.977472 
2048 1:0.705882 2:-0.780933 3:-0.752191 
2048 1:0.882352 2:-0.853955 3:-0.864831 
2048 1:0.941176 2:-0.853955 3:-0.887359 
2048 1:0.941176 2:-0.817444 3:-0.864831 
2048 1:0.882352 2:-0.817444 3:-0.842303 
2048 1:0.941176 2:-0.926977 3:-0.932416 
2048 1:0.82353 2:-0.780933 3:-0.797246 
2048 1:0.882352 2:-0.890467 3:-0.887359 
2048 1:0.882352 2:-0.853955 3:-0.864831 
2048 1:0.82353 2:-0.817444 3:-0.819775 
2048 1:0.941176 2:-0.926977 3:-0.932416 
2048 1:0.82353 2:-0.780933 3:-0.797246 
2048 1:0.882352 2:-0.817444 3:-0.842303 
2048 1:1 2:-1 3:-1 
2048 1:0.941176 2:-0.780933 3:-0.842303 
2048 1:0.941176 2:-0.780933 3:-0.842303 
2048 1:0.941176 2:-0.780933 3:-0.842303 
2048 1:1 2:-0.853955 3:-0.909887 
2048 1:0.941176 2:-0.817444 3:-0.864831 
2048 1:1 2:-0.963489 3:-0.977472 
2048 1:0.941176 2:-0.780933 3:-0.842303 
2048 1:0.82353 2:-0.744422 3:-0.774718 
2048 1:0.941176 2:-0.853955 3:-0.887359 
2048 1:1 2:-0.890467 3:-0.932416 
2048 1:0.647058 2:-0.634888 3:-0.63955 
2048 1:1 2:-0.817444 3:-0.887359 
2048 1:1 2:-0.963489 3:-0.977472 
2048 1:0.764706 2:-0.744422 3:-0.752191 
2048 1:1 2:-0.890467 3:-0.932416 
2048 1:0.882352 2:-0.890467 3:-0.887359 
2048 1:0.882352 2:-0.707911 3:-0.774718 
2048 1:0.82353 2:-0.744422 3:-0.774718 
2048 1:0.647058 2:-0.561866 3:-0.594493 
2048 1:0.941176 2:-0.744422 3:-0.819775 
2048 1:0.882352 2:-0.817444 3:-0.842303 
2048 1:0.82353 2:-0.780933 3:-0.797246 
2048 1:0.941176 2:-0.926977 3:-0.932416 
2048 1:0.882352 2:-0.744422 3:-0.797246 
2048 1:0.82353 2:-0.780933 3:-0.797246 
2048 1:0.705882 2:-0.598378 3:-0.63955 
2048 1:0.882352 2:-0.817444 3:-0.842303 
2048 1:0.882352 2:-0.780933 3:-0.819775 
2048 1:0.882352 2:-0.853955 3:-0.864831 
2048 1:0.757576 2:-0.736677 3:-0.744681 
2048 1:0.515152 2:-0.54859 3:-0.535783 
2048 1:0.272728 2:-0.435737 3:-0.373307 
2048 1:0.757576 2:-0.69906 3:-0.72147 
2048 1:0.878788 2:-0.887147 3:-0.883946 
2048 1:0.757576 2:-0.69906 3:-0.72147 
2048 1:0.939394 2:-0.811912 3:-0.860735 
2048 1:0.878788 2:-0.774295 3:-0.814314 
2048 1:0.818182 2:-0.811912 3:-0.814314 
2048 1:0.878788 2:-0.69906 3:-0.767892 
2048 1:0.647058 2:-0.598378 3:-0.617021 
2048 1:0.941176 2:-0.744422 3:-0.819775 
2048 1:0.764706 2:-0.707911 3:-0.729662 
2048 1:0.764706 2:-0.780933 3:-0.774718 
2048 1:0.352942 2:-0.525355 3:-0.459324 
2048 1:0.882352 2:-0.853955 3:-0.864831 
2048 1:1 2:-0.890467 3:-0.932416 
2048 1:0.941176 2:-0.817444 3:-0.864831 
2048 1:1 2:-0.890467 3:-0.932416 
2048 1:1 2:-0.926977 3:-0.954943 
2048 1:0.90909 2:-0.661442 3:-0.756286 
2048 1:0.454546 2:-0.37931 3:-0.408124 
2048 1:0.454546 2:-0.37931 3:-0.408124 
2048 1:0.727272 2:-0.492163 3:-0.582205 
2048 1:0.545454 2:-0.37931 3:-0.44294 
2048 1:0.818182 2:-0.54859 3:-0.651838 
2048 1:0.90909 2:-0.605015 3:-0.72147 
2048 1:0.454546 2:-0.37931 3:-0.408124 
2048 1:0.727272 2:-0.54859 3:-0.617021 
2.148872968149151 1:0.52381 2:-0.349753 3:-0.416413 
1245.171109537767 1:0.52381 2:-0.349753 3:-0.416413 
318.5339117582177 1:0.333334 2:-0.231527 3:-0.270517 
15.52061522748134 2:0.0551725 3:0.0340426 
2044.103785578363 1:0.52381 2:-0.349753 3:-0.416413 
2020.097860190322 1:0.52381 2:-0.349753 3:-0.416413 
2048 1:0.619048 2:-0.408868 3:-0.489361 
2048 1:0.714286 2:-0.467981 3:-0.56231 
509.8555987035089 1:0.428572 2:-0.231527 3:-0.306991 
2048 1:0.714286 2:-0.349753 3:-0.489361 
2048 1:0.714286 2:-0.467981 3:-0.56231 
2048 1:0.714286 2:-0.467981 3:-0.56231 
2048 1:0.809524 2:-0.467981 3:-0.598784 
2048 1:0.4375 2:-0.418103 3:-0.425532 
2048 1:0.5 2:-0.49569 3:-0.49734 
1346.568278158493 1:0.3125 2:-0.262931 3:-0.281915 
2048 1:0.5 2:-0.49569 3:-0.49734 
2048 1:0.39394 2:-0.473355 3:-0.44294 
2048 1:0.454546 2:-0.510972 3:-0.489361 
106.1873722965512 1:-0.151516 2:-0.134796 3:-0.0251452 
6.072367119971154 2:-0.224138 3:-0.138298 
76.54446426706879 2:-0.224138 3:-0.138298 
816.3071224546513 1:0.3125 2:-0.418103 3:-0.37766 
2048 1:0.375 2:-0.456897 3:-0.425532 
759.4602056831656 1:0.25 2:-0.37931 3:-0.329787 
2045.840524775767 1:0.25 2:-0.37931 3:-0.329787 
1018.116389336946 1:0.25 2:-0.37931 3:-0.329787 
2048 1:0.3125 2:-0.418103 3:-0.37766 
2048 1:0.354838 2:-0.439377 3:-0.407 
2048 1:0.419354 2:-0.399333 3:-0.407 
2048 1:0.419354 2:-0.479421 3:-0.456418 
2048 1:0.419354 2:-0.439377 3:-0.431709 
2048 1:0.419354 2:-0.439377 3:-0.431709 
2048 1:0.48387 2:-0.479421 3:-0.481126 
2048 1:0.48387 2:-0.519466 3:-0.505834 
2048 1:0.419354 2:-0.479421 3:-0.456418 
2048 1:0.419354 2:-0.439377 3:-0.431709 
2048 1:0.4375 2:-0.534483 3:-0.49734 
2048 1:0.625 2:-0.612069 3:-0.617021 
2048 1:0.5 2:-0.573276 3:-0.545213 
2048 1:0.4375 2:-0.534483 3:-0.49734 
2048 1:0.5625 2:-0.49569 3:-0.521277 
2048 1:0.4375 2:-0.534483 3:-0.49734 
2048 1:0.4375 2:-0.534483 3:-0.49734 
2048 1:0.25 2:-0.418103 3:-0.353723 
2048 1:0.5 2:-0.49569 3:-0.49734 
2048 1:0.4375 2:-0.418103 3:-0.425532 
2048 1:0.4375 2:-0.49569 3:-0.473404 
2048 1:0.4375 2:-0.49569 3:-0.473404 
2048 1:0.4375 2:-0.49569 3:-0.473404 
2048 1:0.3125 2:-0.456897 3:-0.401596 
2048 1:0.375 2:-0.49569 3:-0.449468 
1754.512733679216 1:0.3125 2:-0.418103 3:-0.37766 
2048 1:0.5 2:-0.534483 3:-0.521277 
2048 1:0.3125 2:-0.456897 3:-0.401596 
2048 1:0.4375 2:-0.456897 3:-0.449468 
2048 1:0.4375 2:-0.534483 3:-0.49734 
2048 1:0.3125 2:-0.456897 3:-0.401596 
2024.667583859327 1:0.3125 2:-0.418103 3:-0.37766 
2048 1:0.4375 2:-0.49569 3:-0.473404 
2028.232050332017 1:0.3125 2:-0.418103 3:-0.37766 
332.6889991523404 1:0.125 2:-0.340517 3:-0.257979 
2048 1:0.5 2:-0.49569 3:-0.49734 
2048 1:0.5 2:-0.534483 3:-0.521277 
2048 1:0.5 2:-0.418103 3:-0.449468 
2048 1:0.5625 2:-0.573276 3:-0.569149 
2048 1:0.5 2:-0.418103 3:-0.449468 
2048 1:0.375 2:-0.456897 3:-0.425532 
2048 1:0.4375 2:-0.534483 3:-0.49734 
2048 1:0.625 2:-0.650862 3:-0.640957 
2048 1:0.5625 2:-0.573276 3:-0.569149 
2048 1:0.625 2:-0.612069 3:-0.617021 
2048 1:0.8125 2:-0.728448 3:-0.760638 
2048 1:0.6875 2:-0.573276 3:-0.617021 
2048 1:0.6875 2:-0.650862 3:-0.664894 
2048 1:0.6875 2:-0.689655 3:-0.68883 
2048 1:0.75 2:-0.650862 3:-0.68883 
2048 1:0.875 2:-0.689655 3:-0.760638 
2048 1:0.6875 2:-0.573276 3:-0.617021 
2048 1:0.875 2:-0.806034 3:-0.832447 
2048 1:0.75 2:-0.689655 3:-0.712766 
2048 1:0.8125 2:-0.728448 3:-0.760638 
2048 1:0.8125 2:-0.650862 3:-0.712766 
2048 1:0.875 2:-0.728448 3:-0.784574 
2048 1:0.9375 2:-0.806034 3:-0.856383 
2048 1:0.875 2:-0.806034 3:-0.832447 
2048 1:0.8125 2:-0.689655 3:-0.736702 
2048 1:0.875 2:-0.650862 3:-0.736702 
2048 1:0.875 2:-0.689655 3:-0.760638 
2048 1:0.75 2:-0.573276 3:-0.640957 
2048 1:0.8125 2:-0.728448 3:-0.760638 
2048 1:0.8125 2:-0.689655 3:-0.736702 
2048 1:0.8125 2:-0.767241 3:-0.784574 
2048 1:0.875 2:-0.767241 3:-0.808511 
2048 1:0.75 2:-0.534483 3:-0.617021 
2048 1:0.6875 2:-0.612069 3:-0.640957 
2048 1:0.8125 2:-0.689655 3:-0.736702 
2048 1:0.875 2:-0.650862 3:-0.736702 
2048 1:0.75 2:-0.650862 3:-0.68883 
2048 1:0.875 2:-0.767241 3:-0.808511 
-2048 1:0.767442 2:-0.797915 3:-0.786244 
-2048 1:0.857142 2:-0.881774 3:-0.87234 
-2048 1:0.8 2:-0.503448 3:-0.617021 
-1996.910242153683 1:0.82353 2:-0.744422 3:-0.774718 
-200.7115713993824 1:0.875 2:-0.728448 3:-0.784574 
-2048 1:0.9375 2:-0.844828 3:-0.880319 
-2048 1:0.947368 2:-0.803992 3:-0.858902 
-2048 1:0.666666 2:-0.793103 3:-0.744681 
-2048 1:0.666666 2:-0.793103 3:-0.744681 
-2048 1:0.625 2:-0.650862 3:-0.640957 
-2048 1:1 2:-0.963489 3:-0.977472 
-2048 1:0.888888 2:-0.827586 3:-0.851064 
-2048 1:0.888888 2:-0.827586 3:-0.851064 
-1627.761546027289 1:0.806452 2:-0.839822 3:-0.827042 
-2048 1:0.947368 2:-0.803992 3:-0.858902 
-2048 1:0.875 2:-0.844828 3:-0.856383 
-2019.17231764431 1:0.875 2:-0.844828 3:-0.856383 
-2048 1:0.9375 2:-0.689655 3:-0.784574 
-2048 1:0.935484 2:-0.919911 3:-0.925875 
-2048 1:0.5 2:-0.467981 3:-0.480243 
-12.27140599435597 1:0.84 2:-0.90069 3:-0.877447 
-2048 1:0.82353 2:-0.744422 3:-0.774718 
-2048 1:0.692308 2:-0.618037 3:-0.646482 
-2048 1:1 2:-0.892053 3:-0.933395 
-2048 1:0.935484 2:-0.919911 3:-0.925875 
-2048 1:0.67742 2:-0.639599 3:-0.654084 
-2048 1:0.846154 2:-0.713528 3:-0.764321 
-2048 1:0.722222 2:-0.758621 3:-0.744681 
-2048 1:0.846154 2:-0.713528 3:-0.764321 
-2048 1:1 2:-0.962382 3:-0.976789 
-1535.425894439228 1:0.9375 2:-0.689655 3:-0.784574 
-2048 1:0.853658 2:-0.87889 3:-0.869227 
-2048 1:0.875 2:-0.844828 3:-0.856383 
-2048 1:0.870968 2:-0.799778 3:-0.827042 
-2048 1:0.888888 2:-0.827586 3:-0.851064 
-1373.30877633009 1:1 2:-0.962382 3:-0.976789 
-2048 1:0.9375 2:-0.844828 3:-0.880319 
-2048 1:0.448276 2:-0.571938 3:-0.524578 
-2048 1:0.722222 2:-0.758621 3:-0.744681 
-2048 1:0.652174 2:-0.784108 3:-0.73358 
-9.597694833849678 1:1 2:-1 3:-1 
-2048 1:0.76 2:-0.553103 3:-0.63234 
-1923.956339388029 1:0.806452 2:-0.839822 3:-0.827042 
-2048 1:0.846154 2:-0.713528 3:-0.764321 
-2048 1:0.74359 2:-0.777189 3:-0.764321 
-2048 1:1 2:-0.892053 3:-0.933395 
-0.02680333646721738 1:1 2:-1 3:-1 
-2048 1:0.448276 2:-0.272295 3:-0.339692 
-2048 1:0.647058 2:-0.634888 3:-0.63955 
-2048 1:1 2:-0.924765 3:-0.953578 
-2048 1:0.466666 2:-0.544827 3:-0.514894 
-291.4747947801118 1:0.875 2:-0.728448 3:-0.784574 
-61.27721761914852 1:0.82353 2:-0.744422 3:-0.774718 
-2048 1:1 2:-0.962382 3:-0.976789 
-2048 1:1 2:-0.892053 3:-0.933395 
-2048 1:0.947368 2:-0.803992 3:-0.858902 
-2047.784303923389 1:0.875 2:-0.844828 3:-0.856383 
-426.8746244694958 1:0.875 2:-0.844828 3:-0.856383 
-2048 1:0.935484 2:-0.919911 3:-0.925875 
-2048 1:0.939394 2:-0.887147 3:-0.907157 
-797.1603678299532 1:0.82353 2:-0.744422 3:-0.774718 
-2026.373382355007 1:0.806452 2:-0.839822 3:-0.827042 
-2048 1:0.809524 2:-0.763547 3:-0.781155 
-2048 1:0.846154 2:-0.713528 3:-0.764321 
-2048 1:0.466666 2:-0.544827 3:-0.514894 
-185.1161536836659 1:0.777778 2:-0.54023 3:-0.631206 
-2048 1:0.870968 2:-0.799778 3:-0.827042 
-2048 1:0.846154 2:-0.713528 3:-0.764321 
-2048 1:1 2:-0.828775 3:-0.894351 
-2031.682667509022 1:0.875 2:-0.844828 3:-0.856383 
-2048 1:0.428572 2:-0.423645 3:-0.425532 
-0.007754217401111395 1:1 2:-1 3:-1 
-2048 1:0.9375 2:-0.844828 3:-0.880319 
-2048 1:0.870968 2:-0.799778 3:-0.827042 
-2048 1:0.935484 2:-0.919911 3:-0.925875 
-2048 1:0.310344 2:-0.486326 3:-0.418929 
-2048 1:1 2:-0.924765 3:-0.953578 
-2048 1:1 2:-0.848613 3:-0.906591 
-2048 1:0.875 2:-0.844828 3:-0.856383 
-727.3345724717591 1:0.84 2:-0.90069 3:-0.877447 
-2048 1:0.9375 2:-0.844828 3:-0.880319 
-2048 1:0.875 2:-0.844828 3:-0.856383 
-1532.811606005045 1:0.866666 2:-0.917241 3:-0.897873 
-2048 1:0.935484 2:-0.919911 3:-0.925875 
-2048 1:1 2:-0.892053 3:-0.933395 
-2048 1:0.391304 2:-0.460269 3:-0.433858 
-2048 1:0.935484 2:-0.919911 3:-0.925875 
-40.62530220753565 1:0.806452 2:-0.839822 3:-0.827042 
-2048 1:0.82353 2:-0.744422 3:-0.774718 
-2048 1:0.82353 2:-0.744422 3:-0.774718 
-2048 1:0.888888 2:-0.827586 3:-0.851064 
-2048 1:0.875 2:-0.844828 3:-0.856383 
-2048 1:0.894736 2:-0.901997 3:-0.899216 
-2048 1:0.7 2:-0.37931 3:-0.502128 
-2048 1:0.935484 2:-0.919911 3:-0.925875 
-1113.990488651741 1:0.806452 2:-0.839822 3:-0.827042 
-2048 1:0.675676 2:-0.630942 3:-0.648074 
-2028.919642428658 1:0.875 2:-0.844828 3:-0.856383 
-2048 1:1 2:-0.924765 3:-0.953578 
-2048 1:0.870968 2:-0.799778 3:-0.827042 
-1991.89823950652 1:1 2:-0.828775 3:-0.894351 
-2048 1:0.4 2:-0.544827 3:-0.489361 
-2048 1:1 2:-0.892053 3:-0.933395 
-2048 1:0.947368 2:-0.803992 3:-0.858902 
-2048 1:1 2:-0.962382 3:-0.976789 
-1396.941110721624 1:0.894736 2:-0.901997 3:-0.899216 
-811.5995732006875 1:0.3 2:-0.503448 3:-0.425532 
-2048 1:0.4375 2:-0.49569 3:-0.473404 
-0.006824913850437445 1:1 2:-1 3:-1 
-2048 1:0.741936 2:-0.55951 3:-0.629375 
-2048 1:0.870968 2:-0.799778 3:-0.827042 
-212.695880099277 1:0.806452 2:-0.839822 3:-0.827042 
-2048 1:0.657142 2:-0.645321 3:-0.649848 
-2048 1:0.692308 2:-0.618037 3:-0.646482 
-2018.229851338168 1:1 2:-0.828775 3:-0.894351 
-2048 1:0.939394 2:-0.887147 3:-0.907157 
-1602.610772289199 1:0.875 2:-0.844828 3:-0.856383 
-2048 1:0.846154 2:-0.713528 3:-0.764321 
-2048 1:0.809524 2:-0.763547 3:-0.781155 
-1115.922779014051 1:0.888888 2:-0.827586 3:-0.851064 
-2048 1:0.375 2:-0.49569 3:-0.449468 
-2048 1:0.675676 2:-0.630942 3:-0.648074 
-2048 1:1 2:-0.919911 3:-0.950583 
-2048 1:0.375 2:-0.49569 3:-0.449468 
-2048 1:0.935484 2:-0.919911 3:-0.925875 
-2048 1:0.888888 2:-0.827586 3:-0.851064 
-2048 1:0.939394 2:-0.887147 3:-0.907157 
-2048 1:0.894736 2:-0.901997 3:-0.899216 
-2048 1:0.846154 2:-0.713528 3:-0.764321 
-1.103471991999338 1:0.875 2:-0.844828 3:-0.856383 
-2048 1:0.466666 2:-0.503448 3:-0.489361 
-2048 1:0.939394 2:-0.887147 3:-0.907157 
-1810.319075408432 1:0.875 2:-0.844828 3:-0.856383 
-2048 1:0.939394 2:-0.887147 3:-0.907157 
-0.7196064458946126 1:1 2:-1 3:-1 
-2048 1:0.5 2:-0.467981 3:-0.480243 
-1545.961147828285 1:0.888888 2:-0.827586 3:-0.851064 
-2048 1:0.846154 2:-0.904509 3:-0.882161 
-2048 1:0.571428 2:-0.423645 3:-0.480243 
-1853.247659751177 1:0.714286 2:-0.751724 3:-0.737386 
-2048 1:0.9375 2:-0.844828 3:-0.880319 
-2048 1:0.272728 2:-0.473355 3:-0.396518 
-2048 1:0.172414 2:-0.400713 3:-0.313279 
-2038.147027898958 1:0.806452 2:-0.839822 3:-0.827042 
-2048 1:0.875 2:-0.844828 3:-0.856383 
-2048 1:1 2:-0.828775 3:-0.894351 
-2048 1:0.48718 2:-0.490717 3:-0.489361 
-2048 1:0.818182 2:-0.802508 3:-0.808511 
-2048 1:0.9375 2:-0.844828 3:-0.880319 
-1712.916813663574 1:0.5 2:-0.482758 3:-0.489361 
-2048 1:0.888888 2:-0.827586 3:-0.851064 
-2048 1:1 2:-0.892053 3:-0.933395 
-1866.7523708314 1:0.8 2:-0.782759 3:-0.789362 
-2048 1:0.3 2:-0.441379 3:-0.387234 
-2048 1:0.888888 2:-0.827586 3:-0.851064 
-2046.634628209701 1:1 2:-0.919911 3:-0.950583 
-2048 1:0.935484 2:-0.919911 3:-0.925875 
-2048 1:0.48387 2:-0.479421 3:-0.481126 
-2048 1:0.454546 2:-0.54859 3:-0.512572 
-2048 1:0.894736 2:-0.901997 3:-0.899216 
-843.1603520970117 1:0.777778 2:-0.54023 3:-0.631206 
-2048 1:0.5 2:-0.467981 3:-0.480243 
-2048 1:0.875 2:-0.844828 3:-0.856383 
-2048 1:0.875 2:-0.844828 3:-0.856383 
-2048 1:0.82353 2:-0.744422 3:-0.774718 
-2048 1:0.875 2:-0.728448 3:-0.784574 
-2048 1:0.956522 2:-0.973014 3:-0.966698 
-1938.121627279446 1:0.878788 2:-0.887147 3:-0.883946 
-2048 1:1 2:-0.919911 3:-0.950583 
-2048 1:0.875 2:-0.844828 3:-0.856383 
-2048 1:0.666666 2:-0.655172 3:-0.659575 
-261.1136138864405 1:1 2:-0.828775 3:-0.894351 
-886.2305062550809 1:0.84 2:-0.90069 3:-0.877447 
-2048 1:0.448276 2:-0.571938 3:-0.524578 
-2048 1:0.74359 2:-0.777189 3:-0.764321 
-2048 1:0.846154 2:-0.904509 3:-0.882161 
-2048 1:1 2:-0.892053 3:-0.933395 
-2048 1:0.74359 2:-0.777189 3:-0.764321 
-2048 1:0.806452 2:-0.839822 3:-0.827042 
-9.393259230586878 1:0.875 2:-0.728448 3:-0.784574 
-3.172395697326917 1:0.5 2:-0.645321 3:-0.589666 
-2048 1:0.846154 2:-0.904509 3:-0.882161 
-2048 1:0.857142 2:-0.881774 3:-0.87234 
-2048 1:0.666666 2:-0.655172 3:-0.659575 
-2041.976575537585 1:0.875 2:-0.844828 3:-0.856383 
-2048 1:0.894736 2:-0.901997 3:-0.899216 
-2048 1:0.939394 2:-0.887147 3:-0.907157 
-2048 1:0.939394 2:-0.887147 3:-0.907157 
-2048 1:0.806452 2:-0.839822 3:-0.827042 
-0.03623264703774248 1:1 2:-1 3:-1 
-2048 1:0.853658 2:-0.87889 3:-0.869227 
-0.02930372062237561 1:1 2:-1 3:-1 
-326.4971191868842 1:0.866666 2:-0.917241 3:-0.897873 
-2048 1:0.948718 2:-0.96817 3:-0.96072 
-8.003006718932419 1:1 2:-1 3:-1 
-2048 1:0.806452 2:-0.839822 3:-0.827042 
-2048 1:1 2:-0.963489 3:-0.977472 
-13.84717353520443 1:1 2:-1 3:-1 
-2048 1:0.756098 2:-0.788057 3:-0.775817 
-2048 1:0.625 2:-0.650862 3:-0.640957 
-2048 1:0.666666 2:-0.655172 3:-0.659575 
-2048 1:1 2:-0.828775 3:-0.894351 
-2048 1:0.809524 2:-0.82266 3:-0.817629 
-2048 1:0.894736 2:-0.901997 3:-0.899216 
-2048 1:0.935484 2:-0.919911 3:-0.925875 
-2048 1:0.692308 2:-0.618037 3:-0.646482 
-2048 1:0.9375 2:-0.844828 3:-0.880319 
-385.0682603605613 1:0.939394 2:-0.887147 3:-0.907157 
-2048 1:0.9375 2:-0.844828 3:-0.880319 
-2048 1:0.9375 2:-0.844828 3:-0.880319 
-2048 1:0.571428 2:-0.423645 3:-0.480243 
-2048 1:0.9375 2:-0.844828 3:-0.880319 
-2048 1:0.939394 2:-0.887147 3:-0.907157 
-2048 1:1 2:-0.963489 3:-0.977472 
-0.005700318704668476 1:0.7 2:-0.782759 3:-0.751064 
-2048 1:0.888888 2:-0.827586 3:-0.851064 
-2048 1:0.875 2:-0.844828 3:-0.856383 
-2047.19866822338 1:0.875 2:-0.844828 3:-0.856383 
-2048 1:0.935484 2:-0.919911 3:-0.925875 
-1869.557532450095 1:0.939394 2:-0.887147 3:-0.907157 
-2048 1:0.466666 2:-0.37931 3:-0.412766 
-2048 1:0.75 2:-0.534483 3:-0.617021 
-2048 1:0.9375 2:-0.844828 3:-0.880319 
-2048 1:0.8 2:-0.782759 3:-0.789362 
-2048 1:0.48387 2:-0.639599 3:-0.579959 
-2048 1:1 2:-0.919911 3:-0.950583 
-2048 1:0.888888 2:-0.827586 3:-0.851064 
-2046.344782123708 1:0.870968 2:-0.799778 3:-0.827042 
-2048 1:0.888888 2:-0.827586 3:-0.851064 
-2048 1:0.846154 2:-0.904509 3:-0.882161 
-2048 1:0.647058 2:-0.634888 3:-0.63955 
-2048 1:0.888888 2:-0.827586 3:-0.851064 
-2047.388932832833 1:0.875 2:-0.844828 3:-0.856383 
-2048 1:0.935484 2:-0.919911 3:-0.925875 
-2048 1:0.846154 2:-0.713528 3:-0.764321 
-1083.461369115411 1:0.870968 2:-0.799778 3:-0.827042 
-2048 1:0.714286 2:-0.751724 3:-0.737386 
-471.4959690479237 1:0.875 2:-0.728448 3:-0.784574 
-2048 1:1 2:-0.924765 3:-0.953578 
-807.3127675870071 1:1 2:-0.962382 3:-0.976789 
-2048 1:0.875 2:-0.844828 3:-0.856383 
-2048 1:0.8 2:-0.782759 3:-0.789362 
-2048 1:1 2:-0.828775 3:-0.894351 
-2048 1:0.846154 2:-0.713528 3:-0.764321 
-1964.042837558573 1:0.806452 2:-0.839822 3:-0.827042 
-2048 1:0.9375 2:-0.844828 3:-0.880319 
-2048 1:0.657142 2:-0.645321 3:-0.649848 
-867.995708886914 1:0.692308 2:-0.618037 3:-0.646482 
-2048 1:0.448276 2:-0.529132 3:-0.498166 
-2048 1:0.48387 2:-0.439377 3:-0.456418 
-2048 1:0.9375 2:-0.844828 3:-0.880319 
-2048 1:0.935484 2:-0.919911 3:-0.925875 
-2048 1:0.757576 2:-0.54859 3:-0.628627 
-2048 1:0.466666 2:-0.462069 3:-0.46383 
-2048 1:0.74359 2:-0.777189 3:-0.764321 
-2047.852448322231 1:0.875 2:-0.844828 3:-0.856383 
-2048 1:0.857142 2:-0.881774 3:-0.87234 
-2048 1:0.724138 2:-0.571938 3:-0.630227 
-2048 1:1 2:-0.924765 3:-0.953578 
-2048 1:0.470588 2:-0.452333 3:-0.459324 
-2048 1:0.666666 2:-0.793103 3:-0.744681 
-2048 1:0.853658 2:-0.87889 3:-0.869227 
-2048 1:1 2:-0.892053 3:-0.933395 
-2048 1:0.935484 2:-0.919911 3:-0.925875 
-2048 1:1 2:-0.962382 3:-0.976789 
-2048 1:0.935484 2:-0.919911 3:-0.925875 
-2048 1:0.47826 2:-0.514243 3:-0.500462 
-1547.389165803386 1:1 2:-0.919911 3:-0.950583 
-2048 1:0.625 2:-0.650862 3:-0.640957 
-2048 1:0.9375 2:-0.844828 3:-0.880319 
-2048 1:0.9375 2:-0.844828 3:-0.880319 
-2048 1:0.846154 2:-0.904509 3:-0.882161 
-2048 1:0.24138 2:-0.400713 3:-0.339692 
-1138.546441948459 1:0.263158 2:-0.477313 3:-0.395296 
-2048 1:0.846154 2:-0.713528 3:-0.764321 
-91.76487681663097 1:0.806452 2:-0.839822 3:-0.827042 
-2048 1:0.74359 2:-0.777189 3:-0.764321 
-2048 1:0.888888 2:-0.827586 3:-0.851064 
-2048 1:0.939394 2:-0.887147 3:-0.907157 
-2048 1:1 2:-0.892053 3:-0.933395 
-2048 1:0.407408 2:-0.448276 3:-0.432624 
-2047.974511067866 1:0.870968 2:-0.799778 3:-0.827042 
-2048 1:0.44 2:-0.453793 3:-0.448511 
-2048 1:0.888888 2:-0.827586 3:-0.851064 
-2048 1:0.375 2:-0.456897 3:-0.425532 
-2048 1:0.9375 2:-0.844828 3:-0.880319 
-1547.959100341693 1:0.806452 2:-0.839822 3:-0.827042 
-2048 1:0.875 2:-0.844828 3:-0.856383 
-2048 1:0.870968 2:-0.799778 3:-0.827042 
-2048 1:0.666666 2:-0.793103 3:-0.744681 
-2048 1:0.652174 2:-0.784108 3:-0.73358 
-2048 1:0.853658 2:-0.87889 3:-0.869227 
-2048 1:1 2:-0.892053 3:-0.933395 
-2048 1:0.9375 2:-0.844828 3:-0.880319 
-1713.93614825279 1:1 2:-0.919911 3:-0.950583 
-636.0887155133167 1:0.939394 2:-0.887147 3:-0.907157 
-2048 1:0.722222 2:-0.758621 3:-0.744681 
-2048 1:0.333334 2:-0.503448 3:-0.438298 
-2048 1:0.5 2:-0.467981 3:-0.480243 
-2048 1:0.411764 2:-0.488843 3:-0.459324 
-1828.35473621565 1:0.939394 2:-0.887147 3:-0.907157 
-2048 1:0.9375 2:-0.844828 3:-0.880319 
-2048 1:0.736842 2:-0.738657 3:-0.737962 
-2048 1:0.894736 2:-0.901997 3:-0.899216 
-2048 1:0.857142 2:-0.881774 3:-0.87234 
-2048 1:0.846154 2:-0.713528 3:-0.764321 
-2048 1:0.470588 2:-0.415822 3:-0.436796 
-2045.20552972573 1:0.875 2:-0.844828 3:-0.856383 
-2048 1:0.9375 2:-0.844828 3:-0.880319 
-2048 1:0.894736 2:-0.901997 3:-0.899216 
-2048 1:0.888888 2:-0.827586 3:-0.851064 
-15.44991067909706 1:1 2:-1 3:-1 
-2048 1:0.764706 2:-0.525355 3:-0.617021 
-2048 1:0.809524 2:-0.763547 3:-0.781155 
-2046.206417597544 1:0.875 2:-0.844828 3:-0.856383 
-2048 1:0.888888 2:-0.827586 3:-0.851064 
-2048 1:1 2:-0.924765 3:-0.953578 
-770.7357756478741 1:0.263158 2:-0.477313 3:-0.395296 
-2048 1:0.5 2:-0.655172 3:-0.595744 
-2048 1:0.870968 2:-0.799778 3:-0.827042 
-2048 1:0.714286 2:-0.751724 3:-0.737386 
-2048 1:0.806452 2:-0.839822 3:-0.827042 
-2048 1:0.666666 2:-0.655172 3:-0.659575 
-2048 1:0.448276 2:-0.315101 3:-0.366104 
-0.07284734623720296 1:1 2:-0.919911 3:-0.950583 
-2048 1:0.82353 2:-0.744422 3:-0.774718 
-1551.634114987341 1:0.714286 2:-0.751724 3:-0.737386 
-2048 1:0.9375 2:-0.844828 3:-0.880319 
-2048 1:1 2:-0.963489 3:-0.977472 
-2048 1:0.39394 2:-0.39812 3:-0.396518 
-2048 1:0.888888 2:-0.827586 3:-0.851064 
-802.0223679025074 1:0.714286 2:-0.751724 3:-0.737386 
-2048 1:0.641026 2:-0.649868 3:-0.646482 
-25.12341800537411 1:1 2:-1 3:-1 
-2048 1:0.9375 2:-0.844828 3:-0.880319 
-2048 1:0.714286 2:-0.751724 3:-0.737386 
-2048 1:0.74359 2:-0.777189 3:-0.764321 
-2048 1:0.9375 2:-0.844828 3:-0.880319 
-2048 1:0.846154 2:-0.904509 3:-0.882161 
-2048 1:1 2:-0.963489 3:-0.977472 
-981.0098367669766 1:0.9375 2:-0.689655 3:-0.784574 
-1551.608403131908 1:0.84 2:-0.90069 3:-0.877447 
-2048 1:1 2:-0.963489 3:-0.977472 
-2048 1:0.767442 2:-0.797915 3:-0.786244 
-2048 1:0.888888 2:-0.827586 3:-0.851064 
-217.3544225278676 1:-0.043478 2:-0.136432 3:-0.0675303 
-0.06293928605619106 1:1 2:-1 3:-1 
-2046.0243019705 1:0.692308 2:-0.618037 3:-0.646482 
-2048 1:0.875 2:-0.844828 3:-0.856383 
-2048 1:0.74359 2:-0.777189 3:-0.764321 
-2048 1:0.894736 2:-0.901997 3:-0.899216 
-2048 1:0.756098 2:-0.788057 3:-0.775817 
-2048 1:1 2:-0.828775 3:-0.894351 
-2048 1:0.939394 2:-0.887147 3:-0.907157 
-2048 1:0.846154 2:-0.904509 3:-0.882161 
-2048 1:1 2:-0.828775 3:-0.894351 
-2048 1:0.48718 2:-0.649868 3:-0.587561 
-2048 1:0.466666 2:-0.503448 3:-0.489361 
-2048 1:0.4 2:-0.544827 3:-0.489361 
-2048 1:0.935484 2:-0.919911 3:-0.925875 
-2048 1:0.647058 2:-0.634888 3:-0.63955 
-215.0399239999701 1:0.82353 2:-0.744422 3:-0.774718 
-2048 1:0.939394 2:-0.887147 3:-0.907157 
-129.40789243439 1:0.939394 2:-0.887147 3:-0.907157 
-2048 1:0.947368 2:-0.803992 3:-0.858902 
-2048 1:0.935484 2:-0.919911 3:-0.925875 
-2048 1:0.875 2:-0.844828 3:-0.856383 
-2048 1:1 2:-0.924765 3:-0.953578 
-2048 1:0.948718 2:-0.96817 3:-0.96072 
-2048 1:1 2:-0.963489 3:-0.977472 
-2048 1:0.846154 2:-0.904509 3:-0.882161 
-2048 1:0.846154 2:-0.904509 3:-0.882161 
-1457.552884895547 1:0.870968 2:-0.799778 3:-0.827042 
-2048 1:1 2:-0.892053 3:-0.933395 
-2048 1:1 2:-0.963489 3:-0.977472 
-2048 1:0.294118 2:-0.342799 3:-0.324155 
-117.1012204839842 1:0.724138 2:-0.571938 3:-0.630227 
-1154.674703644495 1:0.939394 2:-0.887147 3:-0.907157 
-2048 1:1 2:-0.848613 3:-0.906591 
-2048 1:0.517242 2:-0.443519 3:-0.471754 
-1936.595812552316 1:0.875 2:-0.728448 3:-0.784574 
-2048 1:0.3125 2:-0.418103 3:-0.37766 
-2048 1:0.448276 2:-0.486326 3:-0.471754 
-604.9619814320525 1:0.8125 2:-0.49569 3:-0.617021 
-2048 1:0.888888 2:-0.827586 3:-0.851064 
-2048 1:0.435898 2:-0.554377 3:-0.509001 
-81.90782011408598 1:1 2:-1 3:-1 
-1078.74342081533 1:0.82353 2:-0.744422 3:-0.774718 
-2048 1:0.939394 2:-0.887147 3:-0.907157 
-1653.852612920129 1:1 2:-0.919911 3:-0.950583 
-1424.996032925143 1:0.806452 2:-0.839822 3:-0.827042 
-2048 1:0.67742 2:-0.639599 3:-0.654084 
-2048 1:0.9375 2:-0.689655 3:-0.784574 
-2048 1:1 2:-0.924765 3:-0.953578 
-2048 1:0.82353 2:-0.744422 3:-0.774718 
-2048 1:0.870968 2:-0.799778 3:-0.827042 
-2048 1:1 2:-0.828775 3:-0.894351 
-476.5526875639094 1:0.894736 2:-0.477313 3:-0.637178 
-750.0303922408103 1:0.8 2:-0.782759 3:-0.789362 
-2048 1:0.95122 2:-0.969723 3:-0.962637 
-1696.495594062027 1:0.82353 2:-0.744422 3:-0.774718 
-2048 1:1 2:-0.963489 3:-0.977472 
-696.495515513849 1:0.806452 2:-0.839822 3:-0.827042 
-1855.707706228133 1:0.875 2:-0.844828 3:-0.856383 
-2048 1:0.806452 2:-0.839822 3:-0.827042 
-2048 1:0.809524 2:-0.82266 3:-0.817629 
-2048 1:0.75 2:-0.534483 3:-0.617021 
-2048 1:0.69697 2:-0.360501 3:-0.489361 
-2048 1:0.846154 2:-0.713528 3:-0.764321 
-1383.775081615802 1:0.8 2:-0.782759 3:-0.789362 
-2048 1:0.28 2:-0.453793 3:-0.387234 
-2048 1:0.958334 2:-0.922414 3:-0.93617 
-2048 1:1 2:-0.963489 3:-0.977472 
-2048 1:0.375 2:-0.534483 3:-0.473404 
-2048 1:0.756098 2:-0.788057 3:-0.775817 
-1957.416149292152 1:0.8 2:-0.782759 3:-0.789362 
-1.1788889602865 1:0.9375 2:-0.689655 3:-0.784574 
-22.20930325974872 1:0.875 2:-0.728448 3:-0.784574 
-2048 1:0.846154 2:-0.904509 3:-0.882161 
-2048 1:0.870968 2:-0.799778 3:-0.827042 
-2011.435092853533 1:0.939394 2:-0.887147 3:-0.907157 
-2048 1:0.48387 2:-0.639599 3:-0.579959 
-2048 1:0.485714 2:-0.467981 3:-0.474772 
-2048 1:1 2:-0.962382 3:-0.976789 
-2048 1:0.272728 2:-0.473355 3:-0.396518 
-2048 1:0.371428 2:-0.397045 3:-0.387234 
-2048 1:1 2:-0.963489 3:-0.977472 
-2048 1:0.846154 2:-0.713528 3:-0.764321 
-2047.931555393658 1:0.870968 2:-0.799778 3:-0.827042 
-304.3903466732116 1:0.806452 2:-0.839822 3:-0.827042 
-2048 1:0.317074 2:-0.333894 3:-0.327452 
-2048 1:0.935484 2:-0.919911 3:-0.925875 
-2048 1:0.947368 2:-0.803992 3:-0.858902 
-2048 1:0.875 2:-0.844828 3:-0.856383 
-1425.432236497082 1:0.806452 2:-0.839822 3:-0.827042 
-1973.521213729729 1:0.3 2:-0.503448 3:-0.425532 
-2048 1:0.9375 2:-0.844828 3:-0.880319 
-55.03152492018332 1:0.875 2:-0.728448 3:-0.784574 
-2048 1:0.3125 2:-0.456897 3:-0.401596 
-2048 1:1 2:-0.977429 3:-0.986073 
-2048 1:0.82353 2:-0.744422 3:-0.774718 
-2048 1:1 2:-0.962382 3:-0.976789 
-2048 1:0.9375 2:-0.844828 3:-0.880319 
-0.01792291991799416 1:1 2:-1 3:-1 
-148.0063442353438 1:0.714286 2:-0.37931 3:-0.507599 
-2048 1:0.90909 2:-0.802508 3:-0.843327 
-2048 1:0.756098 2:-0.788057 3:-0.775817 
-2048 1:0.888888 2:-0.827586 3:-0.851064 
-2048 1:0.9375 2:-0.844828 3:-0.880319 
-2048 1:0.529412 2:-0.415822 3:-0.459324 
-2048 1:0.756098 2:-0.788057 3:-0.775817 
-2048 1:0.935484 2:-0.919911 3:-0.925875 
-187.9784893708372 1:0.5 2:-0.645321 3:-0.589666 
-2048 1:0.947368 2:-0.803992 3:-0.858902 
-2048 1:0.82353 2:-0.744422 3:-0.774718 
-2048 1:0.625 2:-0.650862 3:-0.640957 
-2048 1:0.809524 2:-0.763547 3:-0.781155 
-2047.814094307799 1:0.875 2:-0.728448 3:-0.784574 
-0.0001201202225592883 1:1 2:-1 3:-1 
-2048 1:0.74359 2:-0.777189 3:-0.764321 
-1918.4650287778 1:0.875 2:-0.844828 3:-0.856383 
-2048 1:0.809524 2:-0.763547 3:-0.781155 
-0.009769211113867193 1:1 2:-1 3:-1 
-2048 1:0.935484 2:-0.679643 3:-0.777625 
-2048 1:0.888888 2:-0.827586 3:-0.851064 
-2048 1:0.846154 2:-0.713528 3:-0.764321 
-0.6301495397041854 1:1 2:-1 3:-1 
-2048 1:0.809524 2:-0.82266 3:-0.817629 
-444.4152997259657 1:1 2:-0.919911 3:-0.950583 
-2048 1:0.302326 2:-0.364876 3:-0.34092 
-2048 1:0.9375 2:-0.689655 3:-0.784574 
-2048 1:0.666666 2:-0.793103 3:-0.744681 
-209.5736711260086 1:0.5 2:-0.645321 3:-0.589666 
-2048 1:0.875 2:-0.728448 3:-0.784574 
-495.368305011395 1:1 2:-1 3:-1 
-1380.719662674321 1:0.947368 2:-0.771324 3:-0.838746 
-2048 1:0.657142 2:-0.787192 3:-0.737386 
-981.6437124638906 1:0.45946 2:-0.56384 3:-0.523864 
-2048 1:0.76923 2:-0.522547 3:-0.617021 
-1185.956474984034 1:0.806452 2:-0.839822 3:-0.827042 
-2048 1:0.82353 2:-0.744422 3:-0.774718 
-2048 1:0.82353 2:-0.744422 3:-0.774718 
-2048 1:0.714286 2:-0.751724 3:-0.737386 
-0.6972199451224694 1:1 2:-1 3:-1 
-2048 1:0.875 2:-0.844828 3:-0.856383 
-2048 1:0.857142 2:-0.881774 3:-0.87234 
-2048 1:0.947368 2:-0.803992 3:-0.858902 
-1014.656223002381 1:0.692308 2:-0.618037 3:-0.646482 
-47.64341745271347 1:0.8 2:-0.782759 3:-0.789362 
-2048 1:0.48387 2:-0.639599 3:-0.579959 
-2048 1:1 2:-0.892053 3:-0.933395 
-2048 1:0.935484 2:-0.679643 3:-0.777625 
-2048 1:0.90909 2:-0.802508 3:-0.843327 
-2.95244533045674 1:1 2:-1 3:-1 
-2048 1:1 2:-0.924765 3:-0.953578 
-2048 1:0.767442 2:-0.797915 3:-0.786244 
-2048 1:0.619048 2:-0.645321 3:-0.635259 
-2048 1:1 2:-0.828775 3:-0.894351 
-2048 1:0.756098 2:-0.788057 3:-0.775817 
-2048 1:0.777778 2:-0.751724 3:-0.761702 
-779.9587077278678 1:0.724138 2:-0.571938 3:-0.630227 
-2048 1:0.692308 2:-0.618037 3:-0.646482 
-2048 1:0.772728 2:-0.774295 3:-0.773694 
-2048 1:0.82353 2:-0.744422 3:-0.774718 
-2048 1:0.894736 2:-0.901997 3:-0.899216 
-2048 1:0.74359 2:-0.777189 3:-0.764321 
-2034.464120158796 1:0.875 2:-0.844828 3:-0.856383 
-2048 1:1 2:-0.962382 3:-0.976789 
-1736.751602730047 1:0.875 2:-0.728448 3:-0.784574 
-1155.451490468289 1:0.8 2:-0.782759 3:-0.789362 
-2048 1:0.818182 2:-0.802508 3:-0.808511 
-2048 1:0.5 2:-0.441379 3:-0.46383 
-2048 1:0.888888 2:-0.827586 3:-0.851064 
-2048 1:0.846154 2:-0.713528 3:-0.764321 
-20.58565168176766 1:1 2:-1 3:-1 
-2048 1:0.625 2:-0.650862 3:-0.640957 
-2048 1:0.82353 2:-0.744422 3:-0.774718 
-2048 1:1 2:-0.892053 3:-0.933395 
-2048 1:0.809524 2:-0.763547 3:-0.781155 
-2048 1:0.636364 2:-0.37931 3:-0.477756 
-2048 1:1 2:-0.924765 3:-0.953578 
-2048 1:0.809524 2:-0.82266 3:-0.817629 
-2048 1:0.894736 2:-0.901997 3:-0.899216 
-2048 1:0.935484 2:-0.919911 3:-0.925875 
-923.6437791209935 1:0.7 2:-0.782759 3:-0.751064 
-2048 1:0.589744 2:-0.649868 3:-0.626842 
-69.14964698212469 1:1 2:-1 3:-1 
-3.798951551994247 1:0.714286 2:-0.751724 3:-0.737386 
-2048 1:0.625 2:-0.650862 3:-0.640957 
-2048 1:0.888888 2:-0.827586 3:-0.851064 
-2048 1:0.736842 2:-0.738657 3:-0.737962 
-2048 1:0.846154 2:-0.713528 3:-0.764321 
-2048 1:0.772728 2:-0.774295 3:-0.773694 
-2048 1:0.647058 2:-0.634888 3:-0.63955 
-2048 1:0.888888 2:-0.827586 3:-0.851064 
-2048 1:0.947368 2:-0.803992 3:-0.858902 
-2048 1:1 2:-0.892053 3:-0.933395 
-2048 1:0.846154 2:-0.713528 3:-0.764321 
-67.31863290320858 1:1 2:-1 3:-1 
-2048 1:0.875 2:-0.844828 3:-0.856383 
-2048 1:0.466666 2:-0.544827 3:-0.514894 
-2039.733382535565 1:1 2:-0.962382 3:-0.976789 
-2048 1:0.39394 2:-0.510972 3:-0.466151 
-2048 1:0.589744 2:-0.649868 3:-0.626842 
-2048 1:1 2:-0.848613 3:-0.906591 
-2048 1:0.888888 2:-0.827586 3:-0.851064 
-235.6176063197823 1:0.82353 2:-0.744422 3:-0.774718 
-2048 1:0.939394 2:-0.887147 3:-0.907157 
-2048 1:0.666666 2:-0.793103 3:-0.744681 
-2048 1:0.875 2:-0.844828 3:-0.856383 
-2048 1:0.846154 2:-0.713528 3:-0.764321 
-2048 1:0.809524 2:-0.763547 3:-0.781155 
-2048 1:0.809524 2:-0.82266 3:-0.817629 
-2048 1:0.870968 2:-0.799778 3:-0.827042 
-2048 1:0.857142 2:-0.881774 3:-0.87234 
-2048 1:0.5 2:-0.456897 3:-0.473404 
-2048 1:0.368422 2:-0.411978 3:-0.395296 
-2048 1:0.692308 2:-0.618037 3:-0.646482 
-0.03617354411878432 1:1 2:-1 3:-1 
-956.7547162918031 1:1 2:-1 3:-1 
-2023.726218326206 1:1 2:-0.962382 3:-0.976789 
-2048 1:0.756098 2:-0.788057 3:-0.775817 
-2032.00827204106 1:0.875 2:-0.844828 3:-0.856383 
-2048 1:0.956522 2:-0.973014 3:-0.966698 
-2048 1:0.888888 2:-0.827586 3:-0.851064 
-2048 1:0.82353 2:-0.744422 3:-0.774718 
-1973.554522190489 1:0.888888 2:-0.827586 3:-0.851064 
-63.88209145206227 1:1 2:-0.919911 3:-0.950583 
-0.02720137347633676 1:0.692308 2:-0.618037 3:-0.646482 
-2048 1:0.9375 2:-0.844828 3:-0.880319 
-212.6834361768605 1:0.8 2:-0.782759 3:-0.789362 
-2048 1:0.846154 2:-0.713528 3:-0.764321 
-2048 1:1 2:-0.828775 3:-0.894351 
-2048 1:0.692308 2:-0.618037 3:-0.646482 
-2048 1:0.82353 2:-0.744422 3:-0.774718 
-2048 1:0.391304 2:-0.514243 3:-0.46716 
-2048 1:0.875 2:-0.844828 3:-0.856383 
-1902.719759807075 1:0.878788 2:-0.887147 3:-0.883946 
-2048 1:0.875 2:-0.844828 3:-0.856383 
-2048 1:0.736842 2:-0.738657 3:-0.737962 
-2048 1:0.74359 2:-0.777189 3:-0.764321 
-2048 1:0.45946 2:-0.530289 3:-0.503162 
-2048 1:0.9375 2:-0.844828 3:-0.880319 
-2048 1:0.939394 2:-0.887147 3:-0.907157 
-2048 1:0.947368 2:-0.803992 3:-0.858902 
-2048 1:0.888888 2:-0.827586 3:-0.851064 
-25.75115509160145 1:0.947368 2:-0.771324 3:-0.838746 
-2048 1:0.9375 2:-0.844828 3:-0.880319 
-2047.914354417963 1:0.947368 2:-0.771324 3:-0.838746 
-2048 1:0.419354 2:-0.479421 3:-0.456418 
